-0.982543 -1.0855113 1.1198274 1.102601 -0.9717283 -1.0209184 -1.0098121 1.0326756 -0.10671328 1.2927026 -0.93515956 1.0496732 -0.9374802 1.1721104 -1.2095078 -0.9834891 -0.97445804 -1.0657157 1.1067895 1.1329844 -1.0134193 -1.0603075 -1.11729 1.1718796 -0.040438287 1.0925502 -0.9245643 1.211783 -0.8516565 -1.140489 1.2623457 -0.9958942
-1.627227 -2.055731 -1.6797721 -1.792313 -1.8825171 -2.153944 -1.8454481 -1.6675427 2.5763447 -1.6625594 -1.6919335 -1.725427 -1.5038621 1.2202224 0.92813337 -2.0672119
0.84914917 0.07205259 0.3631515 0.03525647 0.660268 -1.7814317 0.7658737 0.39646563 0.20558697 0.6701118 0.9405947 0.40924767 0.4892857 1.0464276 -1.866252 0.82553816 0.68629265 0.03615679 1.3076892 0.5669043 1.3023145 -1.3819962 0.11541778 1.196505 0.5128921 0.8633381 0.17938483 0.73914367 1.3314531 0.7431163 -1.5128134 0.030649614 0.99503523 0.35032555 1.267964 0.3620331 1.2036339 1.1729957 -0.10999214 1.0420212 0.22119682 1.2778655 1.147816 0.94403064 1.1280066 1.0625602 1.0732398 -0.18122068 0.9300593 0.47571006 0.780627 0.58682466 0.9486831 0.6112899 0.42618364 1.518928 -0.37122804 0.95797116 0.93685216 0.6817237 1.0285566 0.90347314 0.9040341 -0.16603181 1.2524322 0.23549293 1.0410556 0.14205845 0.56209946 -0.8369599 -0.14082643 0.9018632 0.27852014 0.82547015 0.6266965 0.9308925 0.5260414 1.2552323 -1.5584508 -0.28875524 0.67103785 0.61436325 0.49997377 0.11576826 1.0505606 -1.1887162 0.531586 1.2024435 0.28692877 0.51658505 0.9197454 0.8496471 0.8205883 0.8579686 -0.9815675 0.035069615 0.8139595 0.2566935 1.2372129 -0.026379399 0.80740815 -1.5282991 0.53256035 1.0419115 0.5195372 1.0873889 0.42751694 0.61880034 0.4347751 0.9852083 -1.504833 0.44652584 1.0727121 0.4959688 0.96339035 0.4016248 0.5778713 0.8790912 0.63813597 0.7633754 0.5310314 0.82101506 0.9126466 1.2394714 1.0075965 0.97782177 0.85757935 0.37441644 -1.7825711 0.51221895 -2.6920073 1.2220359 -2.1498144 -1.5815954 -2.0122702 -2.5957532 -1.76665 -0.86773974 0.21620278 -2.640373 -1.157325 -2.0233574 -2.0254815 0.5691298 0.9857506 0.048426613 1.104803 0.43085852 0.9927076 1.1072575 0.4091432 0.9884024 0.5342198 0.8758266 0.8478683 1.0582122 0.8555067 1.0913149 1.0328405 0.650718 0.7610102 0.43361032 0.78250045 0.5842175 0.7956305 -1.7241688 0.4003705 0.5727434 0.14951281 0.90669703 0.43034762 0.94671863 0.84689474 0.2378094 -1.3358339 0.6135348 0.89022166 0.28674495 0.6880717 0.50032306 0.8109785 0.7249632 0.6042609 0.61888236 0.23128286 0.8767862 0.25893697 0.7517424 0.98975 0.70854646 0.81812507 0.8788456 0.8188517 -0.19675143 0.6165639 0.5287402 0.18859322 -1.617523 0.367006 0.4323033 0.3564955 0.8836081 0.68992835 0.8844167 0.99397916 0.20426133 -1.3656405 0.4550131 -2.1846004 -0.294808 -2.2591546 0.6336383 -2.2993782 -2.6367385 1.3789238 -2.4544027 1.171532 -2.0098085 -2.0923831 -1.9866107 -2.2811143 -1.8783618 -2.5834162 0.72275686 -2.154256 -2.1928298 -2.0929182 0.6967456 -2.1768296 -2.6267376 1.1564088 -2.3858933 0.9775325 -1.9855529 -1.9082952 -1.9765438 -2.2653122 -1.789081 -2.5356324 0.24285069 0.54716 0.40267476 0.77015066 0.48132402 0.74658644 -1.3635015 0.12604475 1.0346713 -0.20808023 0.4628687 0.90942043 1.1577569 1.1577889 1.0171101 -1.7137306 -0.0013800093
-1.6707124 0.01689442 -2.1629424 0.69530773 -2.0343223 -2.0041127 -1.4297842 -2.0888302 -1.3663677 -0.3478605 0.37378222 -2.2105153 -1.2254907 -1.7382188 -1.7347827 0.5253435
2.9223812 3.3697436 1.1140231 1.1293256 2.9326108 2.9525177 0.41559792 0.45523724 3.314833 2.9263155 2.579548 1.8960216 -1.6299396 -1.5991023 2.765408 3.153208 -1.5098813 -1.5770495 2.8430488 2.8561234 2.9811614 2.9694462 2.9036613 2.829941 3.4279609 3.4066045 2.811269 2.433038 1.8883578 2.572908 -0.79501235 -0.84088063
0.35065204 0.2798265
