0.61530846 -0.31554568 -1.2790191 -0.88335186 1.3271251 0.2966573 -0.5183985 1.280215 -0.3200996 0.4670073 1.5860478 -1.0477743 -1.0128849 -0.84804076 -1.0206329 -1.2508914 1.2707558 -1.7154346 -0.2655746 -0.9629456 1.1524526 -0.230349 -1.0459782 0.68664014 0.3157737 1.4372718 0.59561676 -0.7610396 -1.3121417 -1.4737978 -1.0377495 -0.29859105
-2.3274968 -1.9538054 -2.105322 -2.315293 -1.8285632 2.2129617 -2.460108 -2.2821562 2.338072 -2.3109322 -2.646517 -2.3168838 0.12464397 -2.1065948 -2.709265 -1.9437462
0.09508628 -1.3781496 1.1589859 1.5783713 -1.5409003 1.1576847 0.543021 0.86355656 -3.3608336 -0.25134584 0.6203098 -0.39377898 1.3950423 1.0025374 0.95848197 1.1424186 -1.6188544 2.1818542 -1.2792048 1.1683758 -1.0223469 1.0712616 1.3173019 -1.9269538 -0.93648607 1.7439574 1.5810019 0.1834625 0.56342 0.5044074 1.4032145 0.84207517 0.48810816 -1.7666825 -1.8634669 1.1352642 0.48146632 0.7395691 0.9324938 0.6889111 -0.004730354 -2.7129707 1.394229 -0.022407357 0.5750925 0.7160829 0.94324946 0.82486886 0.025311135 0.036950875 -1.5221792 1.1942976 -0.41935492 0.7921751 1.2712393 -0.5250314 -0.03567623 -0.5634491 0.83366656 -0.43714407 1.5920953 0.8823695 1.3977642 1.2840815 1.5978951 1.4080781 0.8999481 0.34861267 0.85417527 1.1207665 -0.6413475 1.7656422 1.5987183 2.329711 -0.41804945 0.47067523 1.3759977 1.1760587 -0.5299803 0.19497015 -1.449599 0.059960105 -2.9642286 -0.9903367 0.22823489 -1.8312539 1.0525862 -0.7137077 1.1338274 1.0886519 1.4385418 -1.3262342 -3.0690114 -1.5531193 1.7000479 -0.7660639 -0.5942409 0.19513759 -1.5928638 1.2504655 -0.6881902 1.0744786 2.1506455 -1.2556249 -1.0162752 -0.222903 1.3137021 -1.5720466 0.88364893 0.8856533 1.9790467 1.4437338 -0.9287798 1.4444484 1.1892818 0.7572967 1.1264311 1.2455225 0.9729389 -0.9115213 0.8954106 -0.3254916 1.0602108 0.038822874 1.0927055 0.5984607 1.13103 1.2906004 1.3122524 -2.5277421 -1.594794 -1.483638 -1.279949 -1.7919884 0.49803343 1.7872304 -0.37977672 -0.4250004 0.284823 -0.811308 -2.482736 -2.6420095 0.23372833 -0.8340933 0.7932376 -2.5282488 1.1891967 1.3390206 -2.4923913 1.16316 0.790264 0.72258955 -3.6996644 0.22607894 0.56141275 -1.1119622 0.97698313 1.6070994 0.50976396 1.3370168 -2.2586446 2.4471645 1.4760327 1.8475794 2.339575 1.2349434 2.7445097 -2.0916255 2.0338948 -1.529879 2.1624885 -0.44066283 2.0405493 1.4979662 2.6029596 1.3870639 0.13619812 -0.961438 -1.153938 0.9166014 -0.24090752 1.0377896 1.0825552 -0.27743903 -0.09888108 -1.5895958 1.1651278 -0.6698457 1.5807703 1.0071012 1.0703144 1.0967343 0.57781094 0.28628358 -1.3913363 -0.51314086 2.163275 -0.41825742 0.5626729 0.2601942 1.5913565 0.686309 0.77774423 2.554952 -0.07581777 -0.3675616 0.4318642 -0.55960286 -0.068363294 1.8768703 -0.9999121 0.3056015 0.9780011 0.8408309 0.03019271 0.11445818 0.7666555 1.7865087 0.3344314 0.93668497 0.84394497 0.9509841 -0.19002895 0.34158263 -0.9449522 0.30125684 -1.1998273 1.1916378 -0.73972917 1.2187269 1.7582941 -0.91288257 -0.46382278 -1.2732613 1.6802578 -1.2486057 1.9047805 1.8572133 1.4497621 1.0700865 1.5901483 -1.6390861 -1.9506831 0.75061643 0.82850486 1.1574354 0.625518 1.097841 0.39753914 -2.2582428 0.6257743 0.037849832 0.56787884 0.9925471 0.51021004 0.5064763
-0.0037974352 -1.1978365 -1.9670966 -1.7046876 -0.26284745 -1.9035604 0.53907496 0.49417284 0.8930957 0.54651624 0.5136555 -0.5132885 -2.56024 -2.2097955 0.5684142 -1.0418667
-3.0035565 -3.0122857 -4.1908545 -4.1884437 4.508815 4.5134444 4.582874 4.5792747 -4.0189133 -4.0154147 5.343552 5.349481 1.5065687 1.9130611 -2.367219 -2.3820336 -3.6609132 -3.6591616 -3.4162557 -3.4092436 1.7139008 1.4664373 -3.776191 -3.7846346 5.019253 5.033049 5.256259 5.237588 1.8787241 1.7204533 4.0287166 4.0246215
0.5145995 0.80569184
